const pretrainedNN = {
    "learningRate": 0.0005,
    "layers": [
        [
            {
                "trainableParams": [
                    -0.4444218494576737
                ],
                "le": 1
            },
            {
                "trainableParams": [
                    0.41273143318930794
                ],
                "le": 1
            },
            {
                "trainableParams": [
                    -0.5689881398491092
                ],
                "le": 1
            },
            {
                "trainableParams": [
                    0.787741995576603
                ],
                "le": 1
            },
            {
                "trainableParams": [
                    0.519246594547818
                ],
                "le": 1
            },
            {
                "trainableParams": [
                    0.34001411232589707
                ],
                "le": 1
            },
            {
                "trainableParams": [
                    0.12815284131014115
                ],
                "le": 1
            },
            {
                "trainableParams": [
                    0.23927155626990437
                ],
                "le": 1
            },
            {
                "trainableParams": [
                    -0.4968265754840875
                ],
                "le": 1
            },
            {
                "trainableParams": [
                    -0.4097741643949244
                ],
                "le": 1
            },
            {
                "trainableParams": [
                    -0.816418382728807
                ],
                "le": 1
            },
            {
                "trainableParams": [
                    -0.4679152733572871
                ],
                "le": 1
            }
        ],
        [
            {
                "trainableParams": [
                    2.4784454424426663,
                    -0.5594586412560941,
                    1.3931758055757042,
                    1.2713836177332918,
                    0.24058803755042935,
                    -0.16202328349933792,
                    -0.057232293024099,
                    0.39215359073387596,
                    0.7366662396172455,
                    0.9949168991127998,
                    0.3925028281598739,
                    0.02849725704485681,
                    0.0678614374156617
                ],
                "le": 13
            },
            {
                "trainableParams": [
                    -0.03425000617271357,
                    0.7761104939028887,
                    0.9328301059966254,
                    -0.2580831257273199,
                    0.21071908823897006,
                    0.43246184833041884,
                    -0.37319917468200225,
                    0.23367110411722802,
                    -0.49469021557112386,
                    -0.7270632636715094,
                    0.17758722802898744,
                    -0.9693099946837094,
                    -0.8266389420853507
                ],
                "le": 13
            },
            {
                "trainableParams": [
                    -0.5172819665800579,
                    1.4029067952203347,
                    -0.6098394809122245,
                    -0.20063384337425308,
                    -0.40439432774353073,
                    0.5375899268197042,
                    -0.22853704811792336,
                    -1.0011897902093463,
                    -0.0785019161386452,
                    -1.287425795730004,
                    -0.5384045484721254,
                    0.3300650994172122,
                    1.0301817807315472
                ],
                "le": 13
            },
            {
                "trainableParams": [
                    -0.7286456787876952,
                    -0.8683403742721064,
                    0.5637218735831939,
                    -0.6074080155011163,
                    0.11231124383830944,
                    1.1955921232264575,
                    0.9918292455167282,
                    -0.6902436415503365,
                    -0.5418069843240504,
                    0.1552234180926568,
                    0.12032941196499623,
                    0.11261122075344791,
                    -1.5013263849604384
                ],
                "le": 13
            },
            {
                "trainableParams": [
                    -0.1709188449303471,
                    0.09009391142382552,
                    0.8167588247351564,
                    -0.37928022735260597,
                    0.7937745467565774,
                    -0.46908573827344546,
                    -0.5338314159140343,
                    0.0627103651192117,
                    0.7883633311244841,
                    0.7903255642663403,
                    0.010971725846253116,
                    -0.5171699836378016,
                    -0.7021780136789743
                ],
                "le": 13
            },
            {
                "trainableParams": [
                    -0.5069904397719223,
                    -0.03393359119124146,
                    0.07104454053768923,
                    0.450635212398542,
                    0.6341277927292532,
                    0.9546046236351706,
                    0.20730838895189518,
                    0.7029783855634885,
                    0.14668917481445554,
                    -0.16666764586981878,
                    0.21894255337524998,
                    -0.36670326260219294,
                    -1.377473540918988
                ],
                "le": 13
            },
            {
                "trainableParams": [
                    -0.9774979229108601,
                    -0.11377239207374493,
                    0.11428667588988682,
                    0.5767794366372628,
                    -0.5708866349872104,
                    -0.2475843654976418,
                    -1.1296596312361389,
                    0.3542770423050958,
                    -1.1628803557553462,
                    -0.6866704731790924,
                    -0.8365473958730166,
                    -0.3953238027888278,
                    -0.9009372440871286
                ],
                "le": 13
            },
            {
                "trainableParams": [
                    1.0517484953971032,
                    -0.8273653978187834,
                    -1.3773481755593213,
                    -0.7382587098805179,
                    0.6734689936578777,
                    -1.2691147265895644,
                    0.6388395852573534,
                    0.4130315517322153,
                    0.7953791945960724,
                    0.24873481640207568,
                    -0.07429079987263548,
                    -0.7315594054051123,
                    -0.05198609199766504
                ],
                "le": 13
            },
            {
                "trainableParams": [
                    0.2185368309209805,
                    0.2040595001844842,
                    0.234021790433451,
                    -0.07216981937662727,
                    0.39892618809885166,
                    0.19022266770650811,
                    -0.8859820230403118,
                    0.8639381331801523,
                    1.4033349912852342,
                    -0.23726666778200706,
                    -1.3710912998604476,
                    0.12813410599716374,
                    0.27491921619910537
                ],
                "le": 13
            },
            {
                "trainableParams": [
                    0.18921609342451612,
                    0.5244460345576346,
                    0.36469644810469437,
                    -1.070441406740812,
                    0.9790207133660577,
                    0.13154125190542135,
                    0.8119472065175027,
                    0.702366609394939,
                    -0.0858128140041746,
                    -0.24580745276232688,
                    0.21793463810273467,
                    0.012765741150221744,
                    -0.8318600000604187
                ],
                "le": 13
            }
        ],
        [
            {
                "trainableParams": [
                    2.4617707044494783,
                    -0.08576864539247805,
                    -0.4521037922976329,
                    0.11874586174604679,
                    0.8390423099252015,
                    -0.22880134574341446,
                    -0.5960881923443262,
                    0.47252423661846915,
                    1.6081386765410453,
                    0.49922126329550026,
                    -0.4748141587916271
                ],
                "le": 11
            },
            {
                "trainableParams": [
                    -0.7656949330000123,
                    0.028274003026107365,
                    -0.6791749727500201,
                    0.978634227475357,
                    0.7674675902303674,
                    0.804041398066863,
                    -0.044720083051428945,
                    -0.149278876182659,
                    -0.7894754119068931,
                    -1.0145352922330138,
                    -0.6474902127706255
                ],
                "le": 11
            },
            {
                "trainableParams": [
                    -0.12069396571097073,
                    0.48873115026941555,
                    -0.8507812111610725,
                    -0.18245559564453484,
                    -0.6681770568776217,
                    1.0113125151622457,
                    0.44160773095761946,
                    0.45996110548710234,
                    0.085992729217929,
                    -0.40437397205737025,
                    0.1834002944864881
                ],
                "le": 11
            },
            {
                "trainableParams": [
                    -0.6173901019390938,
                    0.8123713747564276,
                    0.5362167321041288,
                    -0.4329681876259081,
                    -0.9576617424796334,
                    0.027796192097519847,
                    0.9516711640520789,
                    -0.21992307140065018,
                    -0.9293778524034152,
                    0.39430437758026254,
                    0.2888237940899536
                ],
                "le": 11
            },
            {
                "trainableParams": [
                    -0.3029624994941726,
                    0.8176006724307484,
                    0.2721867774472389,
                    -0.6638614391352167,
                    -0.2774386041733479,
                    0.8498797499927506,
                    0.2698508173550906,
                    0.11265266705248739,
                    -0.9194011173410155,
                    0.6013721437017219,
                    -0.8804829712049179
                ],
                "le": 11
            },
            {
                "trainableParams": [
                    -0.01406913869678241,
                    -0.34125874236313486,
                    0.1799398155715414,
                    0.44441949413148346,
                    -0.026463298871980793,
                    -0.47714334880339887,
                    0.4184466176685294,
                    1.064808984281485,
                    0.8798487729412112,
                    -0.844519960848025,
                    0.24899541625745866
                ],
                "le": 11
            },
            {
                "trainableParams": [
                    0.05496512521485784,
                    0.23745629542571584,
                    0.3025613087908249,
                    0.7354782001800734,
                    0.36506188992915595,
                    0.6897613000869881,
                    -0.39531486731797244,
                    0.16703294346706682,
                    -0.30908349047907735,
                    -1.1036609583514247,
                    -0.47662751253152824
                ],
                "le": 11
            },
            {
                "trainableParams": [
                    0.1973529989643783,
                    0.19676510330866862,
                    -0.9909873543757505,
                    -0.7466275071793873,
                    -0.03324702654812617,
                    0.2745896315112116,
                    -0.8993316726406609,
                    1.065593915259136,
                    0.7547480120127239,
                    -1.387342118044362,
                    0.40092485684751855
                ],
                "le": 11
            }
        ],
        [
            {
                "trainableParams": [
                    0.06462922669886895,
                    0.5727211436959044,
                    -0.6669522125349189,
                    0.10290482074710107,
                    0.933632204536275,
                    -0.021332917471561123,
                    1.0121601427281,
                    -0.10297397889122557,
                    0.04816064988375895
                ],
                "le": 9
            }
        ]
    ],
    "nodeOutputs": [
        [
            0.15120274914089346,
            0.4,
            0,
            0.3333333333333333,
            1,
            0,
            0,
            0,
            0,
            0,
            0,
            0
        ],
        [
            0.8832083222011331,
            -0.003966820599524053,
            1.0418577678568202,
            -0.020489938591136757,
            -0.00024636044037189774,
            -0.006833657954817159,
            -0.014728733969150512,
            0.20347776981470037,
            0.7644559675366658,
            0.02873531838924248
        ],
        [
            2.5763026356774446,
            -0.027195984487230995,
            -0.006733318129898703,
            -0.004500081250528857,
            -0.015264755945040509,
            1.2783957320228159,
            -0.0036185617543727025,
            0.32258694863400583
        ],
        [
            0.12471289898747703
        ]
    ],
    "weightedInputs": [
        [
            0.15120274914089346,
            0.4,
            0,
            0.3333333333333333,
            1,
            0,
            0,
            0,
            0,
            0,
            0,
            0
        ],
        [
            0.12471289898747703,
            -2.7195984487230995,
            -0.6733318129898703,
            -0.4500081250528857,
            -1.526475594504051,
            1.2783957320228159,
            -0.3618561754372702,
            0.32258694863400583,
            0.7644559675366658,
            0.02873531838924248
        ],
        [
            0.12471289898747703,
            -2.7195984487230995,
            -0.6733318129898703,
            -0.4500081250528857,
            -1.526475594504051,
            1.2783957320228159,
            -0.3618561754372702,
            0.32258694863400583,
            0.7644559675366658,
            0.02873531838924248
        ],
        [
            0.12471289898747703,
            -2.7195984487230995,
            -0.6733318129898703,
            -0.4500081250528857,
            -1.526475594504051,
            1.2783957320228159,
            -0.3618561754372702,
            0.32258694863400583,
            0.7644559675366658,
            0.02873531838924248
        ]
    ]
}